[[[[ 0.06830402  0.05940628 -0.01685824  0.18019053 -0.00694182
     0.0546346  -0.01016109  0.16383365  0.01842246  0.02206442
     0.05493531  0.05013546 -0.0767381   0.03718291 -0.08946647
    -0.10333658  0.0371058  -0.04293812 -0.01134929  0.02164852
    -0.03017639  0.00290377  0.02969969 -0.1424144   0.00083831
     0.08011708  0.04473942 -0.01089371]]

  [[-0.05275252 -0.05549755 -0.04162752  0.07256217  0.03842128
     0.0609756   0.09162878  0.00621899 -0.06880584 -0.13776769
     0.01458493 -0.12389801  0.07575571  0.12138258 -0.00995802
    -0.09601817  0.02220684 -0.08614302 -0.09948024  0.09940381
     0.08847296 -0.1743574   0.06655238  0.10271233  0.04812375
     0.12296348  0.02820348  0.02468577]]

  [[-0.00735646  0.03960798  0.07490807  0.17664286 -0.0772076
     0.0387071   0.11650865 -0.26614758  0.03986416 -0.09601854
    -0.13076556 -0.19626231  0.14327571  0.12589246 -0.07740863
    -0.16900642 -0.22051524  0.0749704  -0.05341113  0.00763022
     0.04250394 -0.07030579  0.01595698  0.04925812 -0.06480051
     0.02001159  0.13276482 -0.02555563]]

  [[ 0.00099093 -0.09647488  0.13483447  0.11427309 -0.04658718
     0.06573328 -0.09076706 -0.18328467  0.09178666 -0.10543291
    -0.02309331 -0.1796764   0.03627044  0.06953166 -0.03627066
    -0.23488098 -0.18101104 -0.05237198  0.00663428 -0.05381725
    -0.07276354  0.12560034 -0.01685033  0.07245953 -0.24777995
     0.04753901 -0.06456614 -0.07646854]]

  [[ 0.05173319  0.05869562  0.06279859  0.14353144 -0.08317279
    -0.03208359 -0.12124492  0.10307135 -0.04040086 -0.02866097
     0.09434374 -0.12538697 -0.03680867 -0.25730178 -0.13840161
    -0.24853817  0.00421149 -0.01049808  0.11816227  0.07186342
    -0.15535419  0.23277688 -0.0481679  -0.05008877 -0.2156338
     0.15994753 -0.10004617 -0.08499596]]]


 [[[-0.02856935 -0.2764413   0.00099408 -0.07795924  0.1063078
     0.06905174 -0.01123792  0.13156106 -0.01074159  0.03237214
     0.08318205  0.0739511  -0.07626788 -0.04787596  0.02713836
     0.07596301 -0.2285263  -0.10967961  0.13575667  0.09846488
    -0.12465066  0.17387864 -0.17992815  0.05197871  0.03177074
    -0.01517615  0.02886115  0.03598541]]

  [[ 0.00617106 -0.09719438  0.0464364   0.06882171  0.04592946
     0.06217255  0.0457042  -0.06844372  0.05457086  0.15713298
     0.14065985  0.16067393  0.07743993  0.04661517  0.04918182
     0.12792583 -0.21171393 -0.02105072 -0.07879879  0.06922432
    -0.12848729 -0.16668327 -0.09374031 -0.00067336 -0.11521927
     0.01266854  0.16970873  0.09038482]]

  [[ 0.0617024   0.12267207 -0.09667005  0.07903893 -0.05822068
     0.11039508  0.12422331 -0.36330417  0.02894316  0.02863517
    -0.03413738  0.03651484  0.01129647  0.06417125  0.05987561
     0.05731842 -0.0602725   0.09118617 -0.15364493 -0.05338959
     0.03791193 -0.3915529   0.01419942  0.1760323  -0.03435223
     0.12727228 -0.01870167  0.04892778]]

  [[ 0.0792926  -0.04306644  0.00979709  0.01031558 -0.2320294
     0.12284477  0.01334877 -0.05922166 -0.12795131 -0.086695
    -0.03241583 -0.10925432 -0.29419613  0.05572226  0.19754304
    -0.24108589  0.08728835  0.01804456 -0.17171276 -0.10258934
    -0.08839095 -0.29057407  0.10861508  0.1730006  -0.09172563
     0.09235634 -0.12037529 -0.12575139]]

  [[-0.02246323  0.05167345  0.0809615  -0.02939313  0.04877329
     0.16258569 -0.16128768  0.06197335 -0.07957354  0.07587236
     0.19241512 -0.03116819 -0.29507163 -0.20273559  0.07258427
     0.0208474   0.15694658 -0.10728372 -0.2059364   0.00394775
     0.06457428 -0.05413696  0.11413888  0.03647905  0.0845575
     0.03587493 -0.05318027 -0.26910022]]]


 [[[-0.13989076 -0.18533006 -0.09213401 -0.16060667  0.12575479
    -0.15922132 -0.01786311  0.00589944  0.04831618 -0.1237541
    -0.06531968  0.01877818  0.04704753 -0.10847063 -0.00053376
     0.003727    0.12745333 -0.13538052  0.04425639  0.05033269
    -0.16768658  0.23309717 -0.10873037 -0.05847116 -0.02832899
     0.0074736   0.15894876 -0.01755439]]

  [[ 0.02841447  0.17859426 -0.11668692 -0.11280531 -0.04786564
    -0.17277598 -0.00050956 -0.36061943 -0.00431973  0.1108762
     0.09398556  0.08222852  0.01742321 -0.09403964 -0.05288834
     0.08792623  0.12067351  0.10839546 -0.00756982 -0.09970973
    -0.21812649  0.06716976  0.06776778 -0.18031758 -0.12519966
     0.03381021  0.1145701   0.11050811]]

  [[ 0.08316083  0.16741684 -0.1299269  -0.19531731 -0.1923793
    -0.18917218  0.12477206 -0.21579838 -0.34809658 -0.04588727
     0.1207456   0.24171957 -0.12199224  0.22165416 -0.09392633
     0.26644054  0.2619234   0.03716518 -0.17743045 -0.23915286
     0.06588171 -0.01472431  0.13442405 -0.11936229 -0.1381682
     0.1273309  -0.09820829 -0.03479544]]

  [[ 0.05446467 -0.17453364  0.09052376 -0.31993002 -0.3383142
    -0.04325918  0.07066844 -0.01890676 -0.23169185 -0.1579981
     0.02988724  0.11495055 -0.23055968  0.13102686  0.11123136
     0.20217125  0.22168402 -0.10599374 -0.09587263 -0.01766087
     0.07929582 -0.12790892  0.0424975   0.13963644  0.0622772
     0.07054055 -0.27192628 -0.12491782]]

  [[-0.13400304 -0.26248378  0.05208654 -0.22704153 -0.07737529
     0.15391216 -0.28813103  0.14565687 -0.01116742  0.12457612
     0.0869083  -0.05004941  0.12674244 -0.13615724  0.14569554
     0.04029644  0.01679285 -0.07265896 -0.18195704  0.08965421
     0.08378026 -0.1452128  -0.11978508  0.14999768  0.01192557
    -0.09118342 -0.14822163 -0.17831801]]]


 [[[-0.06328522  0.21972466 -0.17748867 -0.11685101  0.09776214
    -0.1509232  -0.10703112 -0.15906167 -0.23280264 -0.1839993
    -0.2829596  -0.17868228  0.06035252 -0.30051458 -0.13722856
    -0.10522243  0.09079477 -0.08515263 -0.00575031 -0.09481108
    -0.12786618  0.05258896  0.03872007 -0.22027276  0.05356858
    -0.01090667  0.08376396 -0.0751433 ]]

  [[ 0.11113487  0.08367122 -0.05638576 -0.22462666  0.10224729
    -0.06205595  0.14590648 -0.25258878 -0.2054927   0.06168564
    -0.16918115  0.02509802 -0.03369286 -0.14382036 -0.20779563
    -0.10526396  0.14955017  0.06472144 -0.05074652 -0.2659263
    -0.00819087  0.08363361  0.07773301 -0.33793378 -0.0446085
    -0.05036908  0.00505705  0.09025239]]

  [[-0.04961761 -0.03172806 -0.03738911 -0.25933164 -0.06084493
    -0.2139321   0.01296209 -0.09451579  0.00348747  0.07844941
    -0.01557333 -0.04239455 -0.15199028  0.14047454 -0.13659967
     0.04480299 -0.0371662   0.08007068 -0.03236595 -0.12722284
     0.13901724  0.07704645  0.02812351 -0.32063055 -0.06527421
    -0.14760152 -0.07107639  0.1011816 ]]

  [[ 0.07525747 -0.06480422 -0.00803759 -0.0729012  -0.12678167
    -0.22216906 -0.04044718  0.07055989  0.0877916   0.08765684
    -0.14654835  0.16357449  0.12261949  0.17488727 -0.0832793
     0.10297946  0.02645954 -0.03288595 -0.02203365  0.00951512
     0.01647714  0.07651774 -0.04997742 -0.1710142   0.05317215
    -0.22216514 -0.20952174  0.14114901]]

  [[ 0.07285003  0.04668037  0.1188294  -0.01593342 -0.00967135
    -0.11051857 -0.15598705  0.02162916  0.24347258  0.01248647
    -0.12108269  0.07367888  0.16282883 -0.01164805  0.04194205
     0.10511658 -0.09149257 -0.11257599  0.0765046   0.1808172
     0.1186204   0.02894274 -0.16651201 -0.03826371  0.14331196
    -0.22781907 -0.01839114  0.1696277 ]]]


 [[[-0.02034105  0.07165364 -0.10936111 -0.08305769  0.07645579
     0.13826987 -0.06109859 -0.21932766 -0.22159517 -0.13850975
    -0.32971036 -0.09766211  0.07724421 -0.20629507  0.05864644
    -0.01631118 -0.11466355  0.00339409  0.05657982 -0.05709082
    -0.02881739  0.01888871 -0.04342296 -0.0062176   0.02132419
    -0.10789175  0.0897988   0.15141833]]

  [[ 0.06438903 -0.22814794 -0.09050509 -0.07703429  0.04896273
     0.03309653  0.00616233 -0.10009304  0.09952307  0.07503833
    -0.4018236  -0.08542399  0.06487183 -0.16953279 -0.16761065
    -0.04598759 -0.113084    0.10690289  0.1419292   0.08533524
     0.01893395  0.06383686 -0.03369908 -0.06764727  0.14891635
    -0.15247954 -0.03465444 -0.00211809]]

  [[-0.04851433 -0.27760342  0.01863332 -0.02312504 -0.02181179
     0.0178333   0.07624759 -0.11130338  0.07432882  0.07273023
    -0.48803058 -0.13249026  0.04297622 -0.08225828 -0.23252481
     0.03995996 -0.15004471  0.00056667  0.15543748  0.07260697
    -0.05813741  0.07533062 -0.05571124 -0.1035581   0.15256202
    -0.17710143 -0.01356223  0.05406591]]

  [[ 0.02207104  0.03998174  0.02818945  0.09064279  0.05446213
    -0.10312863  0.05609306  0.06457396 -0.05494049  0.05063244
    -0.3333046  -0.07451262  0.20005506  0.0686656  -0.15642627
     0.02011974 -0.24070603  0.02388671  0.17474861  0.04520296
     0.05693444  0.01321698 -0.2189295  -0.11171383 -0.04067476
    -0.17030232 -0.16981345  0.06065198]]

  [[ 0.03252174 -0.13521874  0.01651706  0.03059018 -0.00956257
    -0.11044252 -0.17556901  0.13069223  0.01102838 -0.24368171
    -0.17213698  0.07401334  0.05851313  0.05710047  0.04241645
    -0.08422722 -0.02127399 -0.15106358  0.19752623  0.02782673
     0.09223659  0.05380534 -0.19381964 -0.02343518 -0.14041032
     0.0547483  -0.00413232  0.02197435]]]]
[-0.2454062  -0.01903674 -0.08124798  0.03654213 -0.01433397 -0.02215416
 -0.03183802 -0.02371203 -0.06735455 -0.03686349  0.04799979 -0.10059565
 -0.14641154 -0.12825924 -0.07765651 -0.01694927 -0.03158199 -0.13669492
 -0.06870921 -0.16935149 -0.08809947 -0.11093417 -0.04869633 -0.04788744
 -0.08153579 -0.03426004 -0.01057223 -0.12615381]
[[[[ 1.05380952e-01 -1.67726669e-02  9.90506336e-02 ...  8.93919077e-03
    -1.09660968e-01 -2.98383757e-02]
   [-6.35639718e-03 -2.90090024e-01  1.09528817e-01 ...  1.80470213e-01
     1.23531513e-01  2.87140720e-02]
   [ 4.28555124e-02  4.01792638e-02 -6.11379966e-02 ... -6.57127798e-02
    -2.16493875e-01 -2.91752279e-01]
   ...
   [-2.76444312e-02 -2.28626415e-01 -4.79701050e-02 ... -3.48309986e-02
     1.09761232e-03  4.78062443e-02]
   [ 3.08389571e-02 -5.51514737e-02 -4.07856982e-03 ...  2.28270769e-01
     1.17182277e-01  6.83683380e-02]
   [ 5.65667786e-02 -5.43091632e-02  1.09535672e-01 ...  2.32096259e-02
    -7.55019635e-02  2.80109048e-03]]

  [[-2.11966075e-02  1.09213635e-01 -6.85672334e-04 ... -7.75553063e-02
    -4.50276136e-02 -2.90497214e-01]
   [-7.09197521e-02 -1.54084995e-01  8.07914287e-02 ...  2.37426031e-02
    -1.11354098e-01 -9.55589637e-02]
   [-1.42561002e-02  1.43229440e-02 -7.28717372e-02 ... -7.23304003e-02
    -7.14018533e-04  4.48263139e-02]
   ...
   [ 7.59227499e-02 -1.59685150e-01  3.35824341e-02 ... -2.80863959e-02
     7.23855495e-02  1.56785287e-02]
   [ 3.26628312e-02 -9.80316773e-02  5.74426912e-02 ...  1.45516768e-01
    -1.84570998e-02 -5.67422733e-02]
   [ 9.41415429e-02 -2.57400796e-02  1.27476990e-01 ...  8.14142525e-02
    -2.24282846e-01 -1.30541250e-01]]

  [[ 7.29155773e-03  1.24210097e-01  6.97868690e-02 ...  1.75599698e-02
     1.32088855e-01 -1.20668083e-01]
   [-1.19888455e-01  1.06253952e-01 -1.98907793e-01 ...  4.22873795e-02
     2.19717279e-01 -1.24744281e-01]
   [ 2.03955978e-01 -4.13880721e-02  1.21643677e-01 ...  5.77753522e-02
     1.88134328e-01  1.87822700e-01]
   ...
   [ 2.69841612e-03  2.22553220e-02 -1.67290807e-01 ... -2.01699883e-01
    -7.84502272e-03 -4.65701036e-02]
   [-3.68323224e-03 -3.24025452e-02 -2.46012241e-01 ...  3.90006900e-02
    -7.37655163e-02 -7.90936947e-02]
   [-2.61749774e-01  6.83120340e-02 -2.63604969e-02 ... -7.69237876e-02
     3.77413295e-02 -2.33044058e-01]]

  [[ 2.42912490e-02  4.36008088e-02  1.49968654e-01 ...  5.33278659e-02
     1.57137230e-01  2.15980709e-02]
   [ 7.46012703e-02 -4.96183597e-02  1.06366472e-02 ...  7.36856833e-02
     3.20347585e-02 -2.22404525e-01]
   [ 5.09574153e-02  1.04262009e-02  4.71871942e-02 ...  4.26707081e-02
     6.92305937e-02 -2.15134434e-02]
   ...
   [-1.66597679e-01 -1.04447879e-01 -3.77325356e-01 ... -2.41680816e-01
    -1.24944128e-01 -1.76003203e-01]
   [-2.00785443e-01  3.76921706e-02  6.99922442e-02 ... -1.20313235e-01
     3.27520892e-02 -1.03341416e-02]
   [-3.00288443e-02  6.51534721e-02  8.57623965e-02 ... -8.99809301e-02
     5.05267456e-02  8.44970122e-02]]

  [[ 3.21558230e-02  1.67540431e-01 -2.22879816e-02 ... -5.46098240e-02
     4.22290899e-02 -2.17525158e-02]
   [ 1.72475249e-01  2.64223143e-02  1.09164640e-01 ... -7.70062730e-02
     1.17390551e-01  3.68602090e-02]
   [ 6.60137907e-02 -2.57647652e-02 -9.63618606e-02 ... -3.28593068e-02
    -7.75286369e-03  3.58052850e-02]
   ...
   [ 5.36555238e-03  3.33092697e-02 -1.87233597e-01 ... -2.07000539e-01
    -2.38502577e-01 -2.98368663e-01]
   [ 7.06414804e-02 -1.16299123e-01  6.26924215e-04 ... -1.13671375e-02
    -1.42330155e-01  8.36588666e-02]
   [ 2.12756563e-02 -6.61051497e-02  8.75342116e-02 ...  1.38381720e-01
    -8.11843500e-02  2.00620219e-02]]]


 [[[ 7.17194974e-02  2.75579765e-02  5.46533205e-02 ... -4.17522043e-02
    -3.01694274e-01 -1.16365373e-01]
   [ 4.00112271e-02 -1.49362490e-01 -1.08757675e-01 ... -9.78223160e-02
     3.29632983e-02 -1.29628763e-01]
   [ 1.64587483e-01  8.67320597e-02 -8.79797712e-02 ...  3.76569964e-02
    -3.18732411e-01 -1.54514000e-01]
   ...
   [ 2.92236768e-02 -4.12973404e-01  1.08192265e-02 ...  1.70852482e-01
    -3.15870792e-02 -2.37163350e-01]
   [ 8.17015395e-02  1.16563499e-01 -1.91815272e-01 ...  3.21449973e-02
    -1.14924990e-01  1.52762473e-01]
   [-2.40863096e-02 -8.87446105e-02 -3.25789936e-02 ... -2.18772311e-02
    -1.00447144e-02  8.14256147e-02]]

  [[-1.13565139e-01  3.76831293e-02 -8.76507983e-02 ...  1.21336458e-02
    -2.51461685e-01 -2.38931432e-01]
   [-1.35233244e-02 -3.18240896e-02 -1.08135216e-01 ...  3.15008536e-02
     9.22906101e-02 -1.67553857e-01]
   [-5.77043891e-02 -4.70309258e-02 -1.05318435e-01 ... -1.14397760e-02
    -3.82461883e-02 -3.91627708e-03]
   ...
   [ 3.19153555e-02 -1.76340938e-02 -2.10799783e-01 ...  8.00610632e-02
    -9.66888592e-02 -2.12153941e-01]
   [ 1.01689622e-01  2.12839209e-02  9.11183003e-03 ... -5.07096425e-02
    -2.26913989e-01  3.94375883e-02]
   [ 1.25870019e-01  4.07402636e-03  8.17527249e-02 ... -2.84085032e-02
    -1.74498171e-01  1.69780124e-02]]

  [[-8.42023790e-02  9.28477496e-02  9.17710587e-02 ...  7.13139102e-02
    -7.46144727e-02 -1.63492784e-01]
   [-9.96941775e-02 -9.64214802e-02 -3.50002013e-02 ... -1.96262430e-02
     1.80035494e-02 -9.44185108e-02]
   [ 3.63873951e-02  3.73872332e-02 -6.61429167e-02 ...  1.00992739e-01
     2.01108739e-01  1.05567507e-01]
   ...
   [ 5.76454997e-02 -2.36184578e-02 -2.74044633e-01 ... -4.80753779e-02
    -4.87550087e-02 -2.28570521e-01]
   [ 1.60918638e-01 -1.37535229e-01 -1.66015103e-01 ...  4.60173264e-02
    -4.28819925e-01 -1.36213470e-02]
   [-1.38940081e-01  1.44549087e-01 -3.60650532e-02 ...  4.50188443e-02
    -1.36844352e-01 -2.83040941e-01]]

  [[ 1.11332849e-01  1.21254407e-01  1.42425597e-01 ... -2.89593935e-02
     4.54240926e-02  1.02374896e-01]
   [ 1.54979363e-01  1.15380734e-01  1.99768975e-01 ...  3.25496197e-02
     1.66276619e-01 -1.43151343e-01]
   [ 1.45590648e-01 -7.37898424e-02  5.69729879e-03 ...  1.28373414e-01
     1.34803072e-01  1.43664479e-01]
   ...
   [-5.09793907e-02  3.55074145e-02 -1.46280661e-01 ... -1.06718026e-01
    -1.46379238e-02 -2.05580205e-01]
   [-1.48768455e-01 -2.17962451e-02  2.31350921e-02 ... -6.71832338e-02
    -3.04485504e-02 -2.32475400e-01]
   [-1.89782545e-01  5.86973950e-02  6.30160645e-02 ...  8.09596293e-03
     6.45058528e-02 -1.19855948e-01]]

  [[ 6.87727854e-02  2.29744717e-01  9.94437262e-02 ... -6.34458959e-02
     1.30894080e-01  3.64373252e-02]
   [ 1.28397107e-01  2.60565817e-01 -7.04102442e-02 ... -2.44476855e-01
    -1.31622016e-01 -1.22452481e-02]
   [-6.30471110e-02 -8.66783317e-03  1.36088684e-01 ... -3.69504467e-02
     8.09331536e-02  1.24677427e-01]
   ...
   [-1.13307700e-01  5.70368432e-02 -6.79932684e-02 ... -1.86271951e-01
     1.53828204e-01 -2.51497090e-01]
   [ 1.42625600e-01  1.07257187e-01  2.42704637e-02 ... -3.64550278e-02
    -1.21165060e-01  1.60568282e-02]
   [ 9.94118527e-02 -1.34286135e-01  1.38842463e-01 ... -1.12717204e-01
     3.98501977e-02  1.31176710e-01]]]


 [[[ 8.41722563e-02 -2.23470535e-02 -1.80023350e-02 ... -1.26703177e-02
    -2.33220652e-01  9.97300968e-02]
   [ 4.96560447e-02  7.03309383e-03  1.28979271e-03 ... -2.44180381e-01
     9.80701521e-02  7.12792128e-02]
   [ 2.17985570e-01  6.10861070e-02  8.64936858e-02 ...  4.31071259e-02
    -3.99177432e-01 -6.79294840e-02]
   ...
   [ 8.43205303e-02 -1.19064964e-01  2.46440638e-02 ...  8.06038454e-02
    -1.98452488e-01 -1.54682621e-01]
   [ 2.14233752e-02  7.66398087e-02 -2.10978612e-01 ... -3.27440292e-01
    -9.62124169e-02  2.91467048e-02]
   [ 4.14395630e-02 -8.00156519e-02  4.54798676e-02 ... -2.18841121e-01
     1.69940460e-02  8.69489759e-02]]

  [[-1.50357127e-01 -1.80335008e-02 -4.01666537e-02 ... -1.09986864e-01
    -2.57736653e-01 -1.04421899e-01]
   [ 4.01793141e-03 -1.73111707e-01  2.44505834e-02 ... -9.35969800e-02
    -5.69683127e-02 -1.31001160e-01]
   [-2.62160450e-01 -9.45471600e-02 -4.11630571e-02 ... -6.87788501e-02
    -1.17644146e-01 -1.29214510e-01]
   ...
   [-4.03069295e-02 -8.83003697e-03 -1.01725822e-02 ...  4.54102457e-02
    -9.87843499e-02 -1.58436626e-01]
   [ 1.57369841e-02 -3.19455229e-02 -8.76751021e-02 ... -1.52394325e-01
    -7.79378340e-02  6.31970838e-02]
   [-2.12293044e-02  1.56274624e-02  3.86524796e-02 ... -2.17016861e-01
     2.78820042e-02  9.64439064e-02]]

  [[ 1.59702301e-02 -6.20856695e-02  9.36873108e-02 ... -2.08586212e-02
    -2.13503495e-01 -1.59447715e-01]
   [ 1.83587577e-02 -1.53326824e-01  1.18249163e-01 ... -1.40527636e-02
     1.34344762e-02 -5.39978296e-02]
   [ 4.63495441e-02 -1.83156401e-01 -1.74651176e-01 ... -2.58908927e-01
     8.05202723e-02  2.81045437e-02]
   ...
   [ 3.46579738e-02  1.42532945e-01  3.23701687e-02 ...  1.28815502e-01
     6.68385178e-02 -2.47598022e-01]
   [-9.01134238e-02  4.51797359e-02  2.76689064e-02 ...  3.05489153e-02
    -3.72361094e-01  5.23527749e-02]
   [-8.37599635e-02 -5.98587506e-02 -2.46600360e-02 ... -3.30190301e-01
    -2.08732754e-01 -1.79393902e-01]]

  [[ 4.41350974e-02 -4.79692295e-02 -8.48479848e-03 ... -7.95042515e-02
    -3.41384076e-02 -5.89854382e-02]
   [-4.11612019e-02 -3.38403583e-02 -1.00176401e-01 ... -1.47201642e-01
    -1.58283994e-01 -1.78182006e-01]
   [ 7.35649765e-02 -1.53899491e-01 -9.25704688e-02 ...  9.52735916e-02
     1.33000538e-01  1.12120323e-01]
   ...
   [-5.19213676e-02  9.68275890e-02  8.68083313e-02 ... -3.26653197e-02
     2.40521580e-02 -4.45333451e-01]
   [ 5.58043011e-02 -2.10862711e-01 -2.19590478e-02 ... -1.28162771e-01
    -3.15194726e-01 -9.86296833e-02]
   [-9.98381153e-02 -2.73021430e-01  3.61872949e-02 ... -3.41390938e-01
    -9.34847891e-02 -1.13443486e-01]]

  [[ 4.88831252e-02 -6.71406388e-02  2.91633662e-02 ... -6.64135590e-02
    -6.14421349e-03  1.21398292e-01]
   [-1.43906385e-01 -1.85581312e-01 -1.68244347e-01 ... -1.29341349e-01
    -9.31750312e-02  5.30088767e-02]
   [ 1.33422360e-01 -3.27558905e-01  3.03423731e-03 ...  1.19907610e-01
     1.22122236e-01  1.19007342e-01]
   ...
   [-1.29802510e-01  1.01019315e-01 -1.77685559e-01 ...  3.89686748e-02
     9.72699746e-02  4.01812866e-02]
   [-1.02396406e-01  6.55808151e-02  2.09695902e-02 ... -3.85156684e-02
    -4.71652374e-02 -4.13042493e-02]
   [ 1.91028848e-01 -1.20664254e-01 -2.00348292e-02 ... -8.83270502e-02
    -2.45649852e-02 -1.34550957e-02]]]


 [[[-6.22389652e-02  8.34480580e-03  4.89262789e-02 ... -8.50427970e-02
     4.84775342e-02  7.85343256e-03]
   [-1.78223029e-02  4.43538204e-02  3.76134319e-03 ...  1.77973919e-02
     3.12747657e-02 -5.02230367e-03]
   [-5.37345558e-02  1.24146983e-01  1.43629285e-02 ...  8.53703097e-02
     2.41135503e-03  9.89699066e-02]
   ...
   [-7.80101120e-02 -4.09470126e-02  7.19714016e-02 ...  6.70638457e-02
    -1.21186644e-01  8.89534950e-02]
   [-5.29265068e-02  2.21039727e-02 -1.89627074e-02 ... -3.03382039e-01
    -6.58229515e-02  1.19430862e-01]
   [-3.11265904e-02  9.39886719e-02 -7.32035888e-03 ... -1.76804021e-01
     4.15999331e-02 -5.28932139e-02]]

  [[-8.78066197e-02 -3.29793990e-02 -5.06324284e-02 ... -2.10321829e-01
    -4.74346355e-02 -8.15092996e-02]
   [-1.92285866e-01 -7.59639069e-02  1.67009801e-01 ... -5.67477234e-02
    -8.10147002e-02  6.91226423e-02]
   [-1.20011725e-01 -6.07932769e-02 -4.37968075e-02 ... -1.92514658e-01
    -9.38759223e-02 -1.68602511e-01]
   ...
   [-1.03548177e-01 -1.48541778e-01 -8.64987448e-02 ...  2.81672366e-02
    -2.71130502e-01 -2.45321412e-02]
   [-2.09088549e-01 -2.17202771e-03 -1.01507092e-02 ... -2.31868014e-01
    -1.89739987e-01  1.23093635e-01]
   [ 4.99520674e-02  7.34764412e-02 -7.93996304e-02 ... -4.78488430e-02
     1.21345945e-01 -3.63817345e-03]]

  [[-1.40116289e-02 -1.20681085e-01 -5.90191409e-02 ... -5.95024452e-02
    -5.47221042e-02 -1.19977318e-01]
   [-8.81644487e-02 -2.78479069e-01  7.58086666e-02 ... -1.24970123e-01
    -2.27582734e-02 -1.90830454e-01]
   [-7.15155452e-02 -3.26370060e-01 -3.11016530e-01 ... -2.87731122e-02
    -1.18274175e-01  7.00556263e-02]
   ...
   [-1.62205815e-01  1.47669800e-02  4.77161929e-02 ...  3.94215807e-02
    -3.05453420e-01 -2.15315983e-01]
   [-2.61534035e-01  6.38863817e-02  1.80064514e-01 ... -3.49884957e-01
    -2.18079433e-01 -2.81932633e-02]
   [-7.95786902e-02  9.16525871e-02 -5.66370972e-02 ...  1.10884570e-01
     6.26471192e-02 -9.41795781e-02]]

  [[ 8.00053924e-02 -1.41812250e-01 -5.00742197e-02 ...  1.02743648e-01
    -7.64343375e-03  4.90960702e-02]
   [-5.69146909e-02 -2.23658949e-01 -5.34624383e-02 ...  1.64595986e-04
    -5.80198541e-02 -7.10008293e-02]
   [ 3.71799595e-03 -1.85982138e-02  1.09725751e-01 ...  2.00003795e-02
     2.60054097e-02  1.33876219e-01]
   ...
   [-8.14082474e-02  6.57454059e-02  7.80760422e-02 ... -1.18720204e-01
    -1.76434159e-01 -4.77424741e-01]
   [-2.23965079e-01 -4.41322885e-02  8.61521997e-03 ... -5.07641554e-01
    -3.15975994e-01 -2.50992179e-01]
   [-2.29851305e-01 -7.46954307e-02 -6.78367615e-02 ... -2.74781790e-02
    -1.03228539e-01 -7.65761137e-02]]

  [[ 1.55090302e-01 -1.44334450e-01  7.44407922e-02 ...  7.09158108e-02
    -2.33860984e-02  7.98640847e-02]
   [-1.09891824e-01 -1.76370904e-01 -1.37575924e-01 ... -1.29390493e-01
    -1.96065810e-02 -4.84157726e-02]
   [ 1.69740200e-01 -1.93030193e-01  6.36784434e-02 ...  8.52708295e-02
     1.53394163e-01  1.65539593e-01]
   ...
   [ 5.88947535e-02  9.71288085e-02 -1.08191274e-01 ... -3.42512354e-02
     2.24514365e-01 -1.36120602e-01]
   [-1.21769212e-01 -7.77976736e-02 -2.16004357e-01 ... -1.59893736e-01
    -1.80428758e-01  3.43180187e-02]
   [-1.45283982e-03  3.99298035e-02 -7.28883296e-02 ...  1.03795737e-01
    -1.46814361e-02  1.48794413e-01]]]


 [[[ 1.33954966e-03  4.23533656e-02  5.58916926e-02 ... -1.68282732e-01
     4.15445380e-02  7.68734217e-02]
   [ 1.23580605e-01 -1.84794262e-01  2.72488207e-01 ...  1.90250296e-02
    -3.92366834e-02  1.67844102e-01]
   [-2.30197571e-02  6.37322385e-03 -9.33911465e-03 ... -1.03981838e-01
    -2.01918092e-02 -1.67021543e-01]
   ...
   [ 1.69868432e-02 -1.12452015e-01  1.58299595e-01 ... -1.43664300e-01
    -1.69013496e-02  4.31366339e-02]
   [-1.00343600e-01  1.14548635e-02  1.94482580e-02 ... -1.66749507e-01
    -1.18664332e-01  5.00538498e-02]
   [-2.52951682e-02  1.29702717e-01 -1.36042073e-01 ... -8.02161396e-02
     3.38226072e-02  4.44041044e-02]]

  [[ 4.77284426e-03 -4.24479991e-02 -2.00679787e-02 ... -1.42883644e-01
     2.02355906e-02 -1.31559342e-01]
   [ 6.99193701e-02 -4.92931567e-02 -6.06940016e-02 ... -1.28907010e-01
     2.66965628e-02  7.25504160e-02]
   [-9.27623082e-03 -1.34067936e-02 -7.78590813e-02 ...  9.30570140e-02
     3.62443887e-02 -8.55929404e-03]
   ...
   [-8.35084394e-02 -1.19486973e-01  7.28328004e-02 ... -4.29358743e-02
     5.45692965e-02  2.99279988e-02]
   [-3.16091418e-01  5.04806302e-02  1.70043692e-01 ... -8.13223794e-02
    -1.02163404e-01  1.09592162e-01]
   [-1.63376164e-02  2.22253188e-01  1.40995914e-02 ...  2.34965123e-02
     8.61464217e-02  4.82867099e-03]]

  [[ 1.15485922e-01 -1.16580956e-01 -1.07125252e-01 ...  7.99102560e-02
     7.30432272e-02 -9.21165273e-02]
   [ 2.41382450e-01 -1.03131421e-01 -2.34182686e-01 ...  4.14167754e-02
     8.88469592e-02 -1.16907425e-01]
   [-4.68833651e-03 -2.53612667e-01 -1.83172971e-01 ...  1.56794295e-01
     1.11190807e-02 -2.32389644e-02]
   ...
   [-1.46895096e-01 -1.29406676e-01 -4.76913564e-02 ... -9.61751714e-02
     1.46465063e-01 -1.73487410e-01]
   [-1.63433850e-01  1.72920331e-01  9.60427597e-02 ... -3.90627623e-01
    -7.98386112e-02 -1.07676759e-01]
   [-1.48331136e-01  1.54534653e-02 -3.63748916e-03 ... -8.39228258e-02
     4.59826775e-02 -1.63724661e-01]]

  [[-1.24990009e-02 -2.43068755e-01  1.13044074e-02 ...  8.13845620e-02
     3.03568803e-02  1.09173067e-01]
   [-8.39988142e-02 -8.47487152e-02  4.97425161e-02 ... -6.63550869e-02
     5.78671955e-02 -2.09626202e-02]
   [-5.76019920e-02 -7.05383494e-02  1.77800015e-01 ...  2.27953196e-02
    -2.48714536e-02  1.12571932e-01]
   ...
   [-1.45563409e-01 -1.38610944e-01 -3.58370915e-02 ... -8.20840225e-02
     1.59305036e-01 -3.01573813e-01]
   [-8.00634101e-02  5.81569225e-02 -7.62114972e-02 ... -3.67380500e-01
    -5.53418742e-03 -1.05534598e-01]
   [-1.90435424e-01  1.06214024e-02 -6.67771772e-02 ... -1.31811257e-02
     3.61305811e-02  1.37314526e-02]]

  [[ 6.82082400e-02 -1.90654799e-01  3.89045812e-02 ... -1.99043471e-03
     4.30953093e-02 -8.07823688e-02]
   [-4.70594428e-02 -1.40047699e-01  6.41010404e-02 ... -1.15794748e-01
     3.43340859e-02 -9.29662883e-02]
   [ 5.68668284e-02 -1.78438500e-01  2.25278690e-01 ... -2.91681867e-02
    -7.34716728e-02  5.51060736e-02]
   ...
   [ 7.62672350e-02 -1.80917159e-01 -3.42294797e-02 ... -8.15120339e-03
     3.39540616e-02 -6.59132153e-02]
   [ 1.56695005e-02 -2.22758323e-01 -7.73854330e-02 ... -2.69759651e-02
     4.35391739e-02 -2.40413900e-02]
   [-4.25839387e-02 -3.36395279e-02  3.87610793e-02 ...  6.77227527e-02
     5.67549616e-02  1.18311293e-01]]]]
[-0.11406011 -0.09183537 -0.07986173 -0.06097291 -0.02878938 -0.03620591
 -0.03923595 -0.02674945 -0.05436313 -0.04144342 -0.0391378   0.00977451
 -0.11254794 -0.03447439 -0.13107416  0.07483933 -0.08276085 -0.0104844
 -0.02654498 -0.11991459  0.00508226 -0.01574423 -0.09655622 -0.0165015
 -0.11289272 -0.09951953 -0.13444968  0.01981165]
[[[[ 1.74053654e-03  1.87209770e-02  4.90326770e-02 ...  1.29849210e-01
    -3.42686921e-02  1.06795371e-01]
   [-6.18432611e-02  1.92006379e-02  7.12050423e-02 ... -1.44334316e-01
     9.50072780e-02  3.82603556e-02]
   [-6.48911949e-03 -3.66535299e-02 -2.11242169e-01 ...  1.63339078e-02
    -1.35538802e-01  4.60976548e-03]
   ...
   [ 3.06230709e-02  1.45261157e-02  7.44761899e-02 ...  1.00499853e-01
     3.64356041e-02 -7.61371404e-02]
   [ 3.01904660e-02  2.71756090e-02 -1.74601957e-01 ...  2.09750906e-01
    -6.96463212e-02 -6.50706515e-02]
   [ 6.83957711e-02  2.06329897e-02  4.33964990e-02 ... -1.10297754e-01
    -1.87244900e-02 -1.67649575e-02]]

  [[-1.68464966e-02 -4.62793261e-02  1.95156839e-02 ... -1.33643165e-01
    -1.45363525e-01 -4.19803113e-02]
   [-8.09142888e-02 -3.05583072e-03  5.23674265e-02 ...  1.14642471e-01
     1.58264581e-02  5.55268154e-02]
   [-6.91680387e-02 -7.63727576e-02  4.14828723e-03 ... -5.63857034e-02
     3.75507437e-02 -3.45820859e-02]
   ...
   [ 1.07887335e-01  2.91817877e-02  4.17020032e-03 ...  7.40181431e-02
     1.26883239e-01 -1.10014856e-01]
   [ 9.83514711e-02 -1.79400109e-02 -5.26358315e-04 ...  1.15836039e-01
     2.28980556e-02  4.18557040e-02]
   [-4.23770733e-02 -7.23539293e-02 -1.53099954e-01 ...  7.27581754e-02
    -1.83555428e-02  1.28610596e-01]]

  [[-6.24114871e-02 -6.17630482e-02 -7.24201351e-02 ...  1.48111030e-01
    -7.15808338e-03  6.43372834e-02]
   [ 1.35920659e-01 -1.18223755e-02 -1.29373282e-01 ...  6.11836985e-02
    -7.64357075e-02  4.11271537e-03]
   [-1.11216389e-01 -1.88291855e-02  1.85070351e-01 ...  6.24130964e-02
     1.11816712e-01 -5.18018864e-02]
   ...
   [ 1.92877445e-02 -1.31950004e-03 -2.59802435e-02 ...  1.67022675e-01
    -5.41403284e-03  4.62608971e-02]
   [ 9.89119560e-02 -4.13674628e-03  1.05142826e-02 ... -6.68091327e-03
    -1.62418524e-03  8.05531889e-02]
   [-3.48598883e-02  5.46786701e-03  1.01763709e-02 ...  6.34175092e-02
    -4.08640690e-02 -8.10732972e-03]]

  [[-8.16264451e-02 -5.95979616e-02 -8.35276116e-03 ...  5.36594614e-02
     2.52594292e-01  5.04318513e-02]
   [-1.10837203e-02 -4.54250686e-02  6.76578954e-02 ...  6.06844835e-02
    -3.17159183e-02 -1.12963058e-01]
   [-1.14970192e-01 -7.74143338e-02  1.86903309e-02 ... -2.25351248e-02
    -9.31681320e-02  1.64588988e-01]
   ...
   [-3.95464376e-02  1.85111351e-02 -1.16073474e-01 ...  9.31209549e-02
    -5.82433380e-02  1.38421580e-01]
   [-1.10860802e-01 -3.64637636e-02  1.61000397e-02 ...  1.68374814e-02
     1.14696681e-01 -9.36864763e-02]
   [-6.18261807e-02 -6.03073053e-02  2.36233965e-01 ... -7.56250024e-02
    -1.97691977e-01  2.09881328e-02]]

  [[-1.28942564e-01 -4.57386300e-02  3.55518423e-02 ...  8.86741579e-02
    -4.19643149e-02 -9.31989178e-02]
   [-1.53686643e-01 -6.67651817e-02  2.72402912e-02 ... -1.13935471e-01
    -1.59352913e-01 -1.30892903e-01]
   [-2.47015879e-01 -9.15977359e-02 -1.66616678e-01 ...  2.36679278e-02
    -1.54922828e-01 -3.70053761e-02]
   ...
   [ 6.14614114e-02  1.88608002e-02  8.10079426e-02 ...  1.03103228e-01
    -1.65337443e-01  3.48977149e-02]
   [ 3.57159860e-02  2.64378963e-03  7.65492441e-03 ...  1.30950078e-01
    -7.25933835e-02 -2.43742451e-01]
   [-1.33687817e-02 -3.41555811e-02  3.57591771e-02 ... -2.11252384e-02
     2.49096707e-01  1.46264821e-01]]]


 [[[-5.91206402e-02 -5.18477075e-02  4.18805098e-03 ...  1.13703392e-01
     3.89085785e-02  5.72169125e-02]
   [-1.38953671e-01  2.78652366e-02 -1.30067110e-01 ... -1.14655651e-01
     1.56807676e-02 -4.26115133e-02]
   [-7.48438910e-02 -5.22032194e-02 -1.65882960e-01 ...  2.67486107e-02
     1.04607763e-02 -1.66131675e-01]
   ...
   [-1.82981178e-01 -1.68050360e-02 -2.31190085e-01 ...  8.82938281e-02
    -5.99236879e-03  1.55793846e-01]
   [-4.11709100e-01 -5.74159324e-02 -1.90823629e-01 ...  7.95671716e-02
    -2.16068029e-02  8.74972418e-02]
   [ 9.76114199e-02 -5.01055494e-02  6.78540543e-02 ... -1.07906632e-01
    -3.54293436e-02  9.05160829e-02]]

  [[-4.30789180e-02 -6.97902218e-02 -9.31828544e-02 ...  8.05213749e-02
     1.11103319e-01  4.22031060e-02]
   [ 3.71308774e-02 -4.91244122e-02 -1.23220757e-01 ...  2.01299619e-02
    -1.35717854e-01 -1.94415636e-02]
   [-2.68166482e-01 -5.76001871e-03 -5.16137891e-02 ... -2.03968331e-01
    -2.38000061e-02  5.60156396e-03]
   ...
   [-5.19615412e-02  6.22304250e-03 -2.31821716e-01 ... -6.30336255e-02
    -5.88023989e-03  8.17392208e-03]
   [-2.87127048e-01 -2.34948844e-02 -4.16533723e-02 ... -9.43387151e-02
    -1.37205884e-01  2.47350499e-01]
   [ 4.00804877e-02 -7.38865957e-02 -4.79962490e-02 ... -8.72311145e-02
    -8.14626142e-02 -2.51202971e-01]]

  [[-2.35817507e-01 -2.13440321e-02  2.31429990e-02 ...  1.22502789e-01
    -1.40226647e-01 -1.22836465e-02]
   [-3.78316231e-02  1.32000484e-02 -1.36484921e-01 ... -4.45232987e-02
     9.49406996e-03  3.86053808e-02]
   [-1.32954586e-02 -1.10341944e-02  9.09144729e-02 ... -1.48890521e-02
    -4.67109308e-02  7.52975196e-02]
   ...
   [-8.05476829e-02 -9.91902724e-02 -5.10915369e-02 ...  5.09594642e-02
    -3.57907712e-02  1.36237100e-01]
   [-4.54121642e-02  8.56574476e-02 -4.54064682e-02 ... -2.92040020e-01
    -9.89908129e-02 -7.74850324e-02]
   [-1.01732485e-01  2.35505160e-02 -2.55684584e-01 ...  6.84323758e-02
    -5.28600290e-02 -3.53322662e-02]]

  [[-6.73424825e-02 -1.22612389e-02 -1.96543206e-02 ... -1.97652075e-02
    -6.41073883e-02 -9.45472047e-02]
   [-1.69203177e-01 -6.52021589e-03  4.31573801e-02 ... -2.19579801e-01
    -8.84839222e-02 -7.81770796e-02]
   [-1.64523914e-01 -2.27399077e-02  9.66679081e-02 ...  1.45591591e-02
     6.95399195e-02  3.54850814e-02]
   ...
   [ 4.71034013e-02 -2.44244300e-02  4.89139333e-02 ... -6.65945187e-02
    -7.88516924e-02  1.10503659e-02]
   [-2.01045424e-02 -1.55488793e-02 -1.61778964e-02 ... -5.60768694e-02
     1.21106192e-01 -1.61782708e-02]
   [-1.41840756e-01 -1.93469655e-02 -2.78680008e-02 ... -3.48221874e-07
    -3.48886028e-02 -4.29125652e-02]]

  [[ 2.28518173e-02 -9.25516710e-03 -1.28391031e-02 ...  7.93455020e-02
     1.27845034e-01 -5.09410836e-02]
   [-1.83358803e-01 -1.65686407e-03  4.14442681e-02 ...  5.94211482e-02
    -1.73633434e-02  9.62524414e-02]
   [-4.13151905e-02  1.15638217e-02  1.20151356e-01 ... -6.11471804e-03
    -2.31762528e-02  1.25044674e-01]
   ...
   [ 3.21567804e-02  2.55271103e-02  1.22391460e-02 ...  5.84455095e-02
     6.18017577e-02 -5.73430806e-02]
   [ 1.29257925e-02  1.37381721e-02 -1.15145057e-01 ...  3.69431190e-02
     2.38350078e-01 -8.06868821e-02]
   [-2.10550085e-01 -1.16681727e-02  1.14093304e-01 ... -1.17940921e-03
     8.37807059e-02  3.20465043e-02]]]


 [[[ 1.23337023e-01 -7.52431452e-02  6.91976445e-03 ... -2.30750050e-02
    -3.67876776e-02  3.43016125e-02]
   [-6.65194690e-02 -7.37246498e-02  2.03794926e-01 ... -9.15812775e-02
     2.65825130e-02  5.06142564e-02]
   [ 1.27259836e-01 -4.58648801e-02 -4.56782058e-02 ...  2.91518378e-03
    -1.35193542e-01 -1.97803766e-01]
   ...
   [ 4.64138165e-02  3.65003534e-02  6.85557052e-02 ... -9.98947993e-02
    -4.37399223e-02  1.30059838e-01]
   [-4.99943793e-02 -5.68334945e-02  1.72463223e-01 ...  5.24474382e-02
     2.29310989e-01  1.89599678e-01]
   [ 2.32860103e-01  3.00483461e-02 -3.09122801e-01 ... -9.83713642e-02
    -4.62016836e-02 -1.78043708e-01]]

  [[-6.48121685e-02  2.76779495e-02 -2.24611551e-01 ...  3.20793465e-02
     3.64972651e-02  5.72856404e-02]
   [-8.87767971e-02  1.78220160e-02  2.41692513e-02 ...  8.52755755e-02
    -2.01802135e-01 -2.29533743e-02]
   [ 1.19730700e-02 -3.54072377e-02 -1.72566816e-01 ... -2.03818485e-01
    -8.08926299e-02 -3.98371741e-02]
   ...
   [ 5.38373785e-03 -3.56063321e-02  1.69634163e-01 ... -3.37351143e-01
     3.51467617e-02  1.23826735e-01]
   [-9.87924561e-02 -5.40929474e-03 -2.35127002e-01 ... -3.02607194e-02
    -1.56470500e-02  5.67248203e-02]
   [ 1.12946548e-01  2.68211458e-02 -6.56777695e-02 ... -1.47486433e-01
     1.37301302e-02 -1.29139856e-01]]

  [[-3.02927638e-03 -1.45935640e-03 -8.59594494e-02 ... -3.91150266e-02
     8.54427293e-02 -9.99704078e-02]
   [ 5.49741052e-02  6.59605190e-02 -7.95702413e-02 ... -1.23816751e-01
    -1.93882391e-01 -7.23829046e-02]
   [-5.22156917e-02 -3.75749618e-02 -7.78276920e-02 ... -1.34737998e-01
     1.73277363e-01  3.54854669e-03]
   ...
   [-1.36081027e-02 -4.97699045e-02  9.82580259e-02 ... -1.16943516e-01
     5.02359718e-02  6.11189529e-02]
   [-1.14071548e-01 -2.58009392e-03 -4.41866517e-02 ... -1.78120658e-01
     5.38131408e-02 -9.13808420e-02]
   [ 2.68348753e-02  4.26673554e-02 -1.64354384e-01 ...  8.75114873e-02
     1.14880845e-01 -1.07679747e-01]]

  [[-2.00116802e-02 -1.20489590e-01 -2.65311264e-02 ... -7.14027882e-02
    -2.58608758e-02  1.26550406e-01]
   [-9.95550007e-02 -1.23770460e-01 -1.68353155e-01 ... -6.91513047e-02
    -1.04519604e-02  1.36515377e-02]
   [ 2.36798316e-01 -3.18627097e-02 -1.06805064e-01 ... -1.04385234e-01
     2.50489354e-01 -1.38198549e-04]
   ...
   [-2.70052962e-02 -2.19453289e-03 -7.68210739e-03 ...  3.60483490e-02
    -2.67495841e-01 -3.56277853e-01]
   [ 6.99899113e-03 -8.66593793e-02  4.30385619e-02 ... -8.45285580e-02
     6.46448403e-04 -4.33826670e-02]
   [-1.23344153e-01  1.01661962e-02 -3.13423961e-01 ... -2.85429657e-02
     1.39786586e-01 -9.66483876e-02]]

  [[-7.78424367e-02 -9.55876783e-02  4.90617044e-02 ... -7.53175169e-02
    -1.44870400e-01  9.61733982e-02]
   [ 9.98759419e-02 -1.32404342e-01 -1.46847650e-01 ...  1.47613790e-02
     7.94088989e-02  1.37417093e-01]
   [ 8.28054920e-02 -3.20702121e-02  5.49523458e-02 ...  1.44918993e-01
     6.08826987e-02 -2.87050128e-01]
   ...
   [-5.29571697e-02 -9.34380144e-02  8.00291076e-02 ... -9.04939622e-02
    -1.16015986e-01 -1.08299918e-01]
   [-5.54358885e-02 -7.94753730e-02 -3.82403880e-02 ... -8.76524895e-02
    -3.24458890e-02  9.79109183e-02]
   [-2.92193383e-01 -1.22231878e-02  3.64833847e-02 ... -5.93821779e-02
    -4.32184041e-02 -2.24082202e-01]]]


 [[[ 7.72210881e-02 -5.86486757e-02 -5.01292385e-02 ...  5.50444834e-02
    -7.19398633e-02  2.81838775e-02]
   [-3.47143807e-03 -1.86782740e-02 -1.66139693e-03 ...  5.70396334e-02
     1.47604227e-01 -6.67708293e-02]
   [ 5.93790261e-04 -2.47195959e-02 -1.06846698e-01 ...  3.90837416e-02
    -1.23103067e-01  6.08088588e-03]
   ...
   [ 3.13990057e-01 -3.46011408e-02  1.50182828e-01 ...  8.71872082e-02
    -3.12521048e-02 -1.70178890e-01]
   [-1.58095565e-02 -8.51505548e-02  1.53153270e-01 ...  1.39905633e-02
    -6.92400485e-02 -7.65719637e-02]
   [ 1.86150610e-01  5.02118235e-03 -1.18843928e-01 ... -2.69464016e-01
     5.63497022e-02 -2.10667536e-01]]

  [[ 8.54245946e-02 -6.83231428e-02 -4.90078032e-02 ...  7.51751959e-02
    -9.00867060e-02 -8.49364176e-02]
   [ 2.70596836e-02  4.17135805e-02 -1.54985473e-01 ... -2.91555393e-02
     2.29147956e-01 -1.76192909e-01]
   [-4.21781093e-02 -7.01194927e-02  1.38243064e-02 ... -1.82310469e-03
     1.38189629e-01 -4.99582291e-02]
   ...
   [-1.16888694e-02 -1.42889053e-01 -8.18550438e-02 ...  9.21981782e-02
    -1.17246822e-01 -1.22259080e-01]
   [ 2.80139074e-02 -1.24111073e-02 -3.95585634e-02 ...  5.72603829e-02
    -6.13907985e-02 -1.48629993e-01]
   [-4.07796390e-02  1.96218342e-02 -2.20850661e-01 ...  6.58020154e-02
    -1.82444975e-01  1.04204863e-01]]

  [[-9.67645571e-02  1.52395545e-02 -9.54414755e-02 ... -1.04281932e-01
    -2.01173156e-01 -1.13632053e-01]
   [ 5.25370017e-02 -6.15368560e-02 -1.98104531e-01 ... -6.96150213e-02
     5.03458939e-02 -1.41563252e-01]
   [-4.39466834e-02 -5.17042764e-02 -4.82220091e-02 ...  1.19641200e-01
     4.20302674e-02 -4.67950571e-03]
   ...
   [-1.77316785e-01 -5.65803498e-02 -2.15480532e-02 ...  6.38711313e-03
    -7.71737099e-03 -2.37156838e-01]
   [-1.04957186e-01 -4.61999439e-02  1.23781734e-03 ... -1.09687380e-01
    -4.25467640e-02 -3.20636593e-02]
   [-2.02456921e-01  1.76359490e-02 -2.07378715e-01 ...  2.39264026e-01
    -1.55373305e-01 -1.83461476e-02]]

  [[ 2.28838310e-01 -2.91299820e-02  8.84753279e-03 ... -2.04904526e-01
    -1.53056486e-02 -7.98370019e-02]
   [-9.05107111e-02 -3.75053240e-03 -1.05536051e-01 ...  9.27853435e-02
    -9.83260758e-03  3.48523110e-02]
   [ 4.45844568e-02 -3.99357565e-02 -1.57773510e-01 ... -6.22560736e-03
    -1.33385479e-01  4.87496592e-02]
   ...
   [-1.35964323e-02  7.41528440e-03 -1.24046668e-01 ... -1.80638596e-01
     9.37840268e-02 -9.90481600e-02]
   [ 6.32529566e-03 -4.18798365e-02  9.87832993e-02 ... -7.64046907e-02
    -1.87153101e-01  2.43294239e-01]
   [ 7.07064290e-03 -7.32608512e-02 -7.30375946e-02 ...  5.03362231e-02
    -2.26480633e-01 -1.54597878e-01]]

  [[-4.27108034e-02 -6.26501441e-02  1.39462993e-01 ... -8.94171894e-02
     2.25612856e-02 -2.14790879e-03]
   [-5.99515904e-03 -2.34456491e-02 -4.07463685e-02 ...  3.79006341e-02
     6.04688860e-02 -1.22456834e-01]
   [-2.24424358e-02 -7.21518043e-03  1.09835587e-01 ... -2.90762246e-01
    -1.97226256e-01 -1.32219538e-01]
   ...
   [-2.74554938e-01 -1.12320550e-01  6.33614697e-03 ... -6.22107759e-02
     7.92081431e-02  6.42469525e-02]
   [ 7.70161441e-03 -6.71479106e-02  7.08745271e-02 ... -6.22596815e-02
    -6.30915537e-02  1.03806801e-01]
   [-1.36797890e-01 -1.00060754e-01 -1.58501446e-01 ...  1.55403987e-01
    -2.31558651e-01 -3.24701279e-01]]]


 [[[-8.55330527e-02  8.81796181e-02 -5.22010513e-02 ...  2.20782198e-02
    -1.41070168e-02 -6.44154698e-02]
   [-8.07195380e-02  9.22940113e-03  3.82108875e-02 ...  1.57722250e-01
     1.42786890e-01  1.57588869e-01]
   [-1.45693913e-01 -7.46356100e-02 -1.83091429e-03 ...  6.09075800e-02
    -3.08429971e-02 -1.06962897e-01]
   ...
   [ 1.02888569e-01 -3.14514861e-02 -6.96753897e-03 ... -1.53959589e-02
     1.21030480e-01 -6.51435135e-03]
   [ 3.08337808e-02 -6.27721548e-02 -7.45951803e-03 ... -4.49195430e-02
     1.14032747e-02  2.19365992e-02]
   [ 5.52144982e-02  1.57284215e-02  3.36920805e-02 ... -1.75536741e-02
     3.28936875e-02  8.35484490e-02]]

  [[ 7.22774193e-02 -5.78161562e-03 -7.89651945e-02 ...  6.98261335e-02
    -7.26717040e-02 -9.38119963e-02]
   [ 3.97821106e-02 -2.37529092e-02 -5.74012194e-03 ... -1.41106471e-01
    -3.02762184e-02 -7.01221749e-02]
   [-1.32595271e-01 -5.92396967e-03  7.28843883e-02 ...  1.16528302e-01
    -1.50960222e-01  1.82054579e-01]
   ...
   [ 1.76966399e-01  4.20540124e-02 -1.52040765e-01 ... -1.35121271e-01
     1.39744300e-02 -1.64531440e-01]
   [ 5.43165952e-02  1.94547437e-02 -1.06599912e-01 ... -8.28937218e-02
    -1.91594549e-02 -1.37392193e-01]
   [-2.69525528e-01 -7.22165257e-02  4.68680747e-02 ...  1.56698436e-01
     1.28932195e-02  1.44719733e-02]]

  [[-2.51897871e-01 -9.39587504e-02  1.85712483e-02 ...  2.39409190e-02
    -1.65694669e-01 -1.65244192e-01]
   [-6.57558292e-02 -3.37253287e-02 -9.98415872e-02 ... -5.77191412e-02
    -7.64556183e-03  1.50028733e-03]
   [ 3.45669650e-02 -6.52929768e-02 -2.91328013e-01 ...  5.76989427e-02
    -2.28268310e-01  9.88605618e-02]
   ...
   [ 4.32540700e-02 -9.47655439e-02  1.04640238e-01 ... -1.37737110e-01
     7.02688694e-02 -2.26298645e-01]
   [ 1.98948756e-01  3.06217037e-02  1.45994827e-01 ... -1.80941150e-01
    -8.76183435e-02  3.41351703e-02]
   [-1.26341969e-01 -6.81631267e-03  8.61984566e-02 ...  2.02163950e-01
    -5.86512126e-02 -1.12318113e-01]]

  [[ 2.03021064e-01 -1.14372797e-01  9.03470442e-02 ... -7.62681738e-02
     2.49122549e-02  5.15027903e-03]
   [-1.94837362e-01  1.37997251e-02 -8.61487687e-02 ... -1.05990581e-01
    -1.39104739e-01 -3.51347320e-04]
   [-6.15032054e-02 -9.44137722e-02 -2.49647852e-02 ...  2.48395596e-02
    -1.67085260e-01 -9.90540087e-02]
   ...
   [ 3.45355086e-02 -1.11386679e-01  3.58817168e-02 ... -1.10526726e-01
    -1.66833028e-02 -1.06810682e-01]
   [ 1.85307741e-01 -9.28511024e-02  8.44349936e-02 ... -3.37681353e-01
    -4.55201156e-02 -1.45487383e-01]
   [ 7.73972049e-02 -4.75646965e-02 -4.16606851e-02 ...  3.12435138e-03
    -6.81826547e-02 -6.07515503e-05]]

  [[ 1.60124287e-01 -9.22887400e-02  3.04669514e-02 ...  5.92772439e-02
    -3.83116479e-04 -1.21802188e-01]
   [-1.50333583e-01  4.16082656e-03  3.42121795e-02 ... -1.83908865e-01
    -7.23875985e-02 -1.61098242e-01]
   [-1.88680217e-01  3.88784856e-02 -1.84199646e-01 ... -5.55622578e-02
    -3.32928859e-02 -6.43633902e-02]
   ...
   [-1.42397992e-02 -5.05472496e-02  1.12560333e-03 ... -7.91926496e-03
    -7.12405741e-02 -4.27555479e-02]
   [ 2.38566357e-03  1.68680791e-02  1.32691627e-02 ... -1.37996286e-01
     7.34051242e-02 -3.03342164e-01]
   [ 6.13154769e-02 -1.11722328e-01 -1.82368323e-01 ...  1.78859547e-01
     1.30272061e-01  1.80454060e-01]]]]
[-0.0039032  -0.06903806 -0.02871964  0.02636428 -0.05149606 -0.06418453
 -0.00748382 -0.0054263  -0.03037365 -0.06526646 -0.0755462   0.00392259
 -0.03488502 -0.05917124 -0.03533325 -0.06203398 -0.02920329  0.03895087
 -0.05113583 -0.0462722  -0.02473818 -0.06536651 -0.0042498  -0.024268
 -0.00893166 -0.03068032  0.03247303 -0.02064082]
[[ 0.18071826  0.02991426 -0.11739998 ... -0.0482349  -0.09535632
  -0.03366708]
 [-0.08489472 -0.03197569 -0.06131853 ... -0.02308976 -0.07927211
  -0.08129665]
 [-0.17387484  0.12427455 -0.0101708  ... -0.0472132  -0.22886038
  -0.06308292]
 ...
 [ 0.14090332  0.01021726  0.07487091 ...  0.13210544 -0.18582997
   0.047989  ]
 [-0.06620786 -0.02060962 -0.06911225 ... -0.01878452 -0.02711708
  -0.01440966]
 [-0.14449452 -0.05525927  0.15072207 ... -0.1126562   0.08637311
  -0.06521513]]
[ 0.05699732  0.01605486 -0.03470068 -0.02944409 -0.03119314 -0.01588007
 -0.03878682  0.00868171  0.03342424  0.00528596  0.08528192  0.04956892
  0.03358102 -0.02362518 -0.0011339  -0.03579452  0.04989095 -0.01325728
 -0.03813681  0.04438286  0.02251235 -0.00669851 -0.05281949 -0.04952917
  0.02404852  0.0064967  -0.0218221   0.04881081 -0.00691798 -0.0224475
 -0.0603587  -0.06760023  0.07931608 -0.00340429  0.01689812 -0.0134465
 -0.02956244 -0.00301944 -0.0586756  -0.04358851 -0.03055797 -0.00764724
 -0.02481556 -0.02407065  0.04005348  0.01279168 -0.01053199  0.01868366
  0.01502028 -0.10455607 -0.02503033 -0.04144078 -0.00487764 -0.06088629
  0.03493892 -0.02965639  0.01203563  0.03195599 -0.04457586  0.01229395
 -0.0701495   0.00384706 -0.05001988 -0.08044751  0.0469663   0.05092763
 -0.03614326 -0.07998156 -0.0556481   0.03761577  0.02743812 -0.065933
 -0.03655283  0.04995982  0.01052113  0.02353713 -0.02086026  0.01828992
 -0.00309158  0.01641703 -0.0210131  -0.08214377  0.03501477 -0.0177146
  0.04073292  0.01970106  0.02405067  0.01429479 -0.08022378 -0.03122194
  0.02002242 -0.03618085 -0.01147124 -0.0559997  -0.03405567 -0.04159013
 -0.04103779 -0.02243602 -0.00902461  0.04685243 -0.02310163  0.00446272
 -0.05704478 -0.03231703 -0.00719884  0.04969015 -0.06097583 -0.02755773
  0.02050909  0.01244396  0.00824454  0.05439959  0.11450083  0.05883108
 -0.0811094   0.00170445  0.08433671  0.03588821  0.03868157 -0.03135006
 -0.03179616  0.01634218 -0.05797314 -0.08410688 -0.01043476 -0.0673274
  0.00222145 -0.02900862  0.06726056 -0.04269041  0.00898558 -0.03057778
  0.06469697 -0.03526724  0.00529685 -0.00286103  0.01221362  0.07701989
 -0.0082237  -0.02499665 -0.08049282 -0.07152221 -0.02794484  0.00700945
 -0.03408872  0.00408169 -0.05779597  0.00727603  0.03842914 -0.01953998
 -0.01291743 -0.04028948 -0.05578269  0.00857965  0.04835756 -0.02693982
  0.05961774 -0.07674616  0.00721597  0.10333999 -0.05855332  0.02809749
  0.02981086 -0.0046497  -0.04823767  0.02715685  0.01426116 -0.03338985
 -0.04265115 -0.02470884 -0.05387066 -0.09197862 -0.07283375 -0.01077175
 -0.03417879 -0.01358919 -0.0495879  -0.06330059  0.02329265  0.02622718
  0.03391968 -0.02727141 -0.0195846  -0.00083453  0.00124919 -0.02722498
  0.01297252 -0.02727131  0.05737119  0.03532073 -0.06597252 -0.04150065
  0.04641103  0.00024883  0.04433199 -0.00444373 -0.01108299 -0.08881135
 -0.07393465 -0.10632098 -0.01790953 -0.02070223 -0.01197884  0.03857312
 -0.01304683  0.01836564  0.05053715 -0.09668826 -0.05213765  0.06689915
 -0.03347216  0.00171574 -0.00965974  0.03760915 -0.00326964  0.06850383
 -0.02187027 -0.02341163 -0.03517121 -0.06799343 -0.07286658 -0.00898399
  0.02179546 -0.0061145   0.01377739  0.02943085 -0.02488592 -0.01030262
  0.05465523 -0.03970163 -0.06745461 -0.03332582  0.03203844 -0.08174292
  0.04492952 -0.04356953 -0.00909546  0.03300326  0.02966014 -0.0474572
 -0.03219874 -0.02546868 -0.03940335 -0.04361609  0.09838519 -0.04024338
  0.02177243 -0.01166707  0.02270574  0.03909845]
[[-0.22299546  0.19936013 -0.09230149 ... -0.24418174  0.1731877
   0.12108658]
 [-0.4114204   0.06033613  0.18628915 ...  0.13717343 -0.17256443
  -0.21282718]
 [-0.08434523 -0.0025081  -0.11504196 ... -0.05610582 -0.08868358
  -0.09899385]
 ...
 [-0.2859582  -0.04822777  0.11451688 ...  0.06387462 -0.10597641
   0.00691595]
 [ 0.06460296  0.06858578  0.00797013 ... -0.25165278  0.01543235
  -0.12652528]
 [-0.16364998  0.14052406 -0.0026666  ... -0.1688838   0.13962835
   0.05483164]]
[-0.03184862  0.03691762 -0.04840529  0.06130162  0.01016398 -0.01940652
 -0.04898828 -0.02161346  0.04211751 -0.0026393 ]
